/*!
 * The following copyright notice may not be removed under any circumstances.
 * 
 * Copyright:
 * Typeface © (your company). 2010. All Rights Reserved
 * 
 * Description:
 * This font was created using FontCreator 6.0 from High-Logic.com
 */
Cufon.registerFont({"w":1014,"face":{"font-family":"Sunshine Poppy","font-weight":400,"font-stretch":"normal","units-per-em":"2048","panose-1":"2 0 5 0 0 0 0 0 0 0","ascent":"1638","descent":"-410","bbox":"-342 -2062 2394 418.058","underline-thickness":"150","underline-position":"-142","unicode-range":"U+0020-U+F002"},"glyphs":{" ":{"w":508},"\u00a0":{"w":508},"!":{"d":"216,-235v80,-80,304,-53,295,84v-8,119,-191,189,-287,108v-55,-47,-62,-139,-8,-192xm244,-1578v58,390,55,770,-8,1139r253,0v-31,-258,-53,-519,-66,-782v-25,-527,10,-804,103,-831v-104,19,-233,19,-387,0v41,121,76,279,105,474","w":672},"\"":{"d":"472,-2053v66,27,214,52,255,0v-10,167,-191,569,-316,602v5,-21,15,-67,33,-136v39,-148,56,-291,28,-466xm171,-2053v66,27,214,52,255,0v-10,167,-191,569,-316,602v5,-21,15,-67,33,-136v39,-148,56,-291,28,-466","w":855},"&":{"d":"426,-1174v-162,-12,-305,67,-305,217v0,74,30,194,101,360v77,181,160,316,249,404r0,190v32,11,72,11,119,0v-27,1,-62,-108,-64,-142v85,59,160,53,225,-16v76,-81,136,-247,181,-499r-191,-89v7,123,7,236,1,338v-11,203,-50,250,-112,138v-42,-76,-298,-426,-342,-513v-50,-98,-73,-167,-60,-213v15,-57,78,-81,188,-72v94,7,160,12,199,13v-18,-57,-28,-111,-30,-161v-102,-50,-186,-152,-252,-305v-55,-129,-79,-221,-70,-275v11,-65,67,-71,169,-16v148,79,255,209,320,391r16,-137v-23,-145,-128,-295,-242,-351r0,-132r-111,0v27,30,40,65,40,106v-65,-13,-123,2,-176,45v-60,49,-107,129,-141,242v-33,108,6,220,115,336v54,58,112,105,173,141","w":1037},"'":{"d":"171,-2053v66,27,214,52,255,0v-10,167,-191,569,-316,602v5,-21,15,-67,33,-136v39,-148,56,-291,28,-466","w":507},"*":{"d":"826,-1801v-37,-26,-77,-54,-66,-101v-66,29,-88,47,-251,140v-4,-110,18,-205,66,-285v-44,21,-94,35,-123,5v-7,61,-1,100,1,267v-121,-80,-195,-134,-224,-161v-9,66,-23,106,-42,121v-3,3,1,6,12,11v7,3,24,9,52,18v72,24,131,47,178,69v-144,82,-236,130,-276,144v58,36,90,65,96,87v1,5,7,3,17,-6r41,-40v55,-55,104,-98,149,-131v3,153,0,250,-7,289v61,-31,104,-43,127,-37v5,1,6,-4,3,-17r-16,-54v-22,-72,-37,-134,-46,-187v100,61,171,135,212,221v9,-46,27,-95,67,-99v-44,-39,-190,-127,-256,-172v96,-55,191,-83,286,-82","w":1024},",":{"d":"142,-308v66,27,214,52,255,0v-10,167,-191,569,-316,602v5,-21,15,-67,33,-136v39,-148,56,-291,28,-466","w":557},".":{"d":"148,-231v81,-80,304,-52,295,84v-8,120,-191,189,-287,108v-54,-46,-61,-139,-8,-192","w":557},"0":{"d":"475,-207v-166,-219,-273,-798,-198,-1202v44,-236,128,-401,258,-494v72,-52,145,-6,224,134v135,240,240,795,196,1174v-25,221,-85,374,-185,457v-101,85,-197,60,-295,-69xm250,-1714v-159,356,-195,1031,-37,1402v90,209,216,314,383,312v167,-2,291,-112,378,-328v152,-377,110,-1063,-47,-1413v-94,-210,-200,-314,-331,-307v-139,7,-250,120,-346,334","w":1171},"1":{"d":"66,-2043v151,20,230,336,237,949v4,405,-14,770,-53,1095v83,5,164,5,243,0r-72,-2044r-355,0","w":683},"2":{"d":"174,-1522v7,-105,32,-202,75,-292v87,-179,225,-232,413,-158v188,74,134,397,-162,969v-148,286,-315,564,-500,835r13,168r791,-3v41,-69,78,-125,113,-170v-177,47,-447,69,-810,65v227,-295,415,-597,566,-906v131,-270,196,-489,195,-657v-2,-209,-108,-333,-319,-370v-160,-29,-299,31,-418,179v-60,74,-104,150,-131,230"},"3":{"d":"244,-1623v27,-173,163,-358,308,-409v80,-28,152,-21,218,24v75,51,135,146,177,285v36,120,-7,245,-128,374v-61,64,-125,116,-193,157v54,-5,109,1,165,18v111,34,170,109,175,224v4,85,-35,223,-118,414v-90,208,-186,359,-287,452v-103,95,-194,110,-275,43v-96,-80,-171,-273,-225,-578r214,-100v-8,138,-9,264,-2,377v13,227,56,279,125,155v46,-83,333,-476,381,-572v55,-109,81,-187,67,-238v-17,-63,-87,-90,-210,-80v-104,8,-178,13,-221,14v20,-63,31,-123,34,-179v118,-69,220,-199,280,-340v61,-144,88,-246,78,-307v-11,-73,-74,-78,-189,-17v-164,87,-283,232,-356,435","w":1085},"4":{"d":"841,-659r-594,5r591,-1207xm963,-658v0,-12,4,-475,13,-1390v-87,47,-162,76,-224,87v-51,145,-117,308,-198,488v-163,359,-321,624,-476,794r-17,166v312,-9,574,-9,786,0v14,202,-16,372,-89,510v107,3,176,4,206,2v2,-257,2,-429,0,-514v83,-5,140,-4,171,3v2,-14,2,-63,0,-146v-91,1,-148,1,-172,0","w":1209},"5":{"d":"29,-1543v45,8,195,-3,227,-2v83,4,149,31,200,84v107,113,180,262,221,445v76,346,95,605,58,777v-25,114,-77,166,-156,155v-94,-13,-224,-113,-389,-300v-43,91,-82,149,-115,172v123,100,456,269,622,192v139,-64,209,-284,215,-501v9,-303,-65,-588,-241,-844v-131,-191,-223,-218,-522,-255v0,-104,-5,-215,-14,-333r726,43v-73,-39,-120,-83,-139,-133v-65,4,-306,2,-722,-5v38,47,48,216,29,505"},"6":{"d":"266,-205v-18,-106,1,-255,58,-448v53,-183,123,-350,209,-501v91,-161,173,-252,245,-274v75,-22,117,31,120,158v6,274,-131,708,-235,923v-73,151,-135,238,-190,259v-117,44,-186,5,-207,-117xm340,-1013v-69,155,-124,306,-166,453v7,-151,39,-325,97,-523v116,-396,301,-712,556,-949v-35,-3,-106,-8,-214,-13v-77,57,-184,269,-319,636v-143,386,-218,679,-211,880v9,252,76,416,187,491v95,64,207,57,337,-21v60,-36,122,-140,187,-312v63,-165,110,-343,141,-533v33,-205,37,-365,12,-481v-29,-134,-94,-186,-196,-155v-135,41,-272,217,-411,527","w":1075},"7":{"d":"63,-2048r0,176r715,-6r-102,266v-169,7,-284,0,-344,-22v0,98,-14,155,-43,171v34,3,148,-8,343,-32r-569,1491v73,5,145,5,214,0v36,-301,197,-804,484,-1507v77,-10,146,-19,206,-28r0,-95v-45,5,-99,10,-161,15v81,-193,145,-336,192,-429v-122,33,-434,33,-935,0","w":1046},"8":{"d":"361,-158v-107,-197,-122,-673,-63,-961v36,-176,84,-287,150,-332v66,-45,128,-13,192,94v164,274,232,1070,-52,1266v-93,64,-168,43,-227,-67xm546,-1975v65,49,135,175,108,284v-14,57,-54,98,-117,123v-32,13,-61,0,-91,-35v-65,-75,-116,-333,-8,-395v31,-18,67,-8,108,23xm585,-1540v51,2,61,-18,82,-80v57,-173,9,-433,-170,-433v-185,0,-246,248,-171,409v25,55,60,88,104,99v14,25,12,41,-2,48v-218,112,-336,487,-316,843v10,183,46,335,111,455v71,131,162,196,274,194v111,-2,198,-71,262,-203v177,-362,88,-1119,-170,-1290v-15,-19,-17,-33,-4,-42","w":941},"9":{"d":"814,-1835v18,106,-1,255,-57,448v-53,183,-123,350,-209,501v-91,161,-173,252,-246,274v-75,22,-116,-30,-119,-157v-6,-274,130,-709,234,-924v73,-151,135,-238,190,-259v117,-44,186,-5,207,117xm740,-1027v69,-155,125,-306,167,-453v-7,151,-40,325,-98,523v-116,396,-301,712,-556,949v35,4,106,8,214,13v77,-57,184,-269,320,-636v143,-385,217,-679,210,-880v-9,-252,-76,-416,-187,-491v-95,-64,-207,-57,-337,21v-59,36,-122,140,-187,312v-63,165,-109,343,-140,533v-33,205,-38,365,-13,481v29,134,95,186,197,155v135,-41,272,-217,410,-527","w":1089},":":{"d":"138,-814v81,-80,304,-52,295,84v-8,120,-191,189,-287,108v-54,-46,-61,-139,-8,-192xm138,-235v81,-80,304,-52,295,84v-8,120,-191,189,-287,108v-54,-46,-61,-139,-8,-192","w":557},";":{"d":"128,-765v81,-80,304,-52,295,84v-8,120,-191,189,-287,108v-54,-46,-61,-139,-8,-192xm142,-308v66,27,214,52,255,0v-10,167,-191,569,-316,602v5,-21,15,-67,33,-136v39,-148,56,-291,28,-466","w":557},"\u037e":{"d":"128,-765v81,-80,304,-52,295,84v-8,120,-191,189,-287,108v-54,-46,-61,-139,-8,-192xm142,-308v66,27,214,52,255,0v-10,167,-191,569,-316,602v5,-21,15,-67,33,-136v39,-148,56,-291,28,-466","w":557},"<":{"d":"927,-1074r-625,359r625,355r0,167r-840,-481r0,-83r840,-484r0,167"},"=":{"d":"87,-631r840,0r0,140r-840,0r0,-140xm87,-943r840,0r0,140r-840,0r0,-140"},">":{"d":"87,-1241r840,484r0,83r-840,481r0,-167r625,-355r-625,-359r0,-167"},"?":{"d":"354,-231v80,-80,304,-53,295,84v-8,119,-191,189,-287,108v-55,-47,-62,-139,-8,-192xm172,-1348v-29,-107,-32,-212,-10,-314v44,-203,193,-292,446,-267v125,13,198,89,217,228v16,119,-6,272,-67,459v-55,167,-128,325,-218,472v-91,147,-169,237,-236,268v55,5,143,4,263,-3v123,-230,217,-466,282,-709v57,-213,68,-385,47,-520v-49,-314,-420,-406,-695,-216v-99,68,-196,169,-201,308","w":1003},"@":{"d":"1346,-783v0,224,-205,423,-429,417v-223,-6,-357,-181,-357,-417v0,-237,181,-423,418,-417v287,8,368,107,368,417xm1019,-1383v-378,0,-579,217,-577,600v2,323,186,551,505,551v225,0,393,-144,430,-337r50,169v35,74,87,110,154,107v79,-3,155,-66,230,-189v169,-277,187,-679,46,-1002v-139,-319,-433,-557,-857,-564v-557,-9,-929,459,-929,1024v0,562,375,1024,929,1024v112,0,216,-17,313,-50r46,-147v-48,23,-99,43,-154,60v-259,79,-480,49,-661,-90v-164,-126,-266,-311,-306,-555v-40,-243,-8,-472,97,-687v116,-238,299,-401,548,-489v141,-49,280,-35,421,39v252,132,463,480,504,824v22,187,5,358,-65,507v-34,72,-74,116,-111,134v-47,23,-75,4,-80,-53v-24,-283,-30,-311,-4,-632v10,-121,10,-205,1,-250v-56,-279,-228,-349,-559,-381v-254,-24,-461,92,-528,273r146,196v-11,-65,-3,-130,23,-197v53,-134,175,-206,364,-215v189,-9,309,76,361,257v26,90,33,181,21,273v-41,-127,-183,-200,-358,-200","w":2019},"A":{"d":"1211,-704v0,299,-272,568,-570,559v-298,-9,-474,-243,-474,-559v0,-316,239,-558,554,-558v210,0,350,57,421,171v46,75,69,204,69,387xm776,-1507v-504,0,-770,293,-767,803v3,431,246,738,672,738v209,0,367,-74,474,-225v53,-75,86,-151,97,-226r-16,413r256,-9v-29,-431,-55,-684,-12,-1167v14,-162,12,-273,1,-334v-27,-147,-84,-257,-170,-331v-118,-101,-309,-161,-573,-180v-242,-17,-431,39,-568,168v-69,65,-113,131,-133,199r193,262v-15,-87,-4,-176,31,-265v71,-179,232,-274,483,-287v251,-13,411,102,480,343v35,121,44,243,28,366v-10,-45,-38,-89,-83,-134v-89,-89,-220,-134,-393,-134","w":1601},"B":{"d":"288,-826v6,-96,36,-191,79,-287v86,-192,213,-289,383,-289v100,0,180,70,240,210v49,116,76,251,79,406v4,189,-10,327,-42,412v-51,137,-156,211,-315,224v-307,23,-452,-202,-424,-676xm179,-272v53,173,241,272,479,272v465,0,677,-309,645,-928v-18,-347,-200,-589,-539,-598v-165,-4,-377,105,-473,201r24,-723r-307,4v99,527,133,930,101,1209r-96,835r166,0r0,-272","w":1395},"C":{"d":"1185,-1753v-33,-59,-80,-115,-142,-168v-125,-106,-262,-146,-411,-119v-241,43,-406,163,-495,360v-67,148,-97,367,-90,658v7,278,53,505,136,681v111,233,280,341,508,341v283,0,500,-180,552,-420r-240,-210v15,71,13,143,-6,214v-38,143,-140,214,-306,214v-145,0,-246,-95,-303,-286v-29,-99,-53,-278,-72,-537v-15,-211,9,-408,71,-593v75,-225,186,-320,334,-299v198,28,308,220,284,456","w":1328},"D":{"d":"764,-383v-63,157,-148,233,-254,228v-75,-3,-131,-69,-170,-197v-70,-230,-45,-637,33,-845v48,-129,103,-196,171,-201v104,-7,182,64,240,212v95,243,71,576,-20,803xm983,-1353v-71,-108,-238,-182,-420,-178v-391,8,-514,220,-539,619v-16,255,19,466,100,634v87,182,213,273,378,272v143,0,259,-77,348,-231v45,-77,75,-153,91,-230r-36,461v130,8,222,8,276,0v-109,-671,-106,-1212,11,-1625v59,-206,128,-345,208,-418r-422,0","w":1467},"E":{"d":"918,-1552v0,223,-98,348,-294,375v-170,24,-323,25,-460,4v10,-128,38,-256,83,-384v91,-257,225,-385,403,-386v179,-1,269,129,268,391xm1163,-1574v-1,-290,-214,-478,-516,-478v-191,0,-356,92,-495,275v-147,194,-225,443,-234,747v-9,315,45,566,162,755v115,186,269,276,460,271v158,-5,309,-102,454,-291v72,-94,128,-188,169,-282r-272,-131v-1,89,-16,181,-45,275v-59,187,-161,291,-306,310v-152,21,-256,-74,-312,-285v-29,-110,-50,-316,-64,-617v297,1,506,-18,625,-55v249,-77,374,-241,374,-494","w":1261},"F":{"d":"0,-1240r201,0v47,-539,214,-808,503,-808v199,0,382,159,438,323r-272,195v-2,-94,-19,-178,-52,-253v-65,-150,-174,-178,-327,-84v-94,57,-145,266,-152,627r331,0r52,272r-405,-146v42,342,131,712,268,1111v-125,4,-244,4,-358,0r-28,-479v-13,-253,-15,-468,-6,-646v-90,-13,-154,-18,-193,-17v2,-20,2,-52,0,-95","w":1247},"G":{"d":"904,-866v-145,143,-327,56,-426,-63v-83,-100,-118,-246,-109,-435v11,-218,49,-373,114,-465v69,-97,180,-141,333,-134v155,8,246,128,280,359v47,317,-43,590,-192,738xm871,-2051v-455,-37,-723,314,-723,774v0,337,275,602,599,614v117,4,212,-43,285,-147v36,-52,60,-105,73,-158v-3,139,-22,279,-58,418v-72,280,-193,421,-362,424v-169,3,-299,-102,-389,-314v-45,-107,-74,-213,-85,-320r-200,173v43,97,103,194,182,291v159,194,330,291,513,291v203,0,346,-100,427,-300v65,-158,99,-408,103,-750v4,-392,-3,-629,-22,-712v-42,-181,-140,-268,-343,-284","w":1338},"H":{"d":"791,-1534v-200,0,-401,142,-475,290r34,-809r-324,0v85,487,209,1671,117,2046r166,0v-37,-487,-22,-892,131,-1174v85,-156,210,-234,369,-237v85,-1,165,46,239,142v69,91,124,211,164,360v91,341,80,644,-35,911v51,0,131,-1,242,-2v50,-459,-15,-1024,-197,-1289v-108,-158,-250,-238,-431,-238","w":1510},"I":{"d":"272,-1143v58,390,55,770,-8,1139r253,0v-31,-258,-53,-519,-66,-782v-25,-527,10,-804,103,-831v-104,19,-233,19,-387,0v41,121,76,279,105,474xm216,-2012v80,-80,304,-53,295,84v-8,119,-191,189,-287,108v-55,-47,-62,-139,-8,-192","w":736},"J":{"d":"996,-2048v47,341,69,682,68,1023v-2,683,-121,1024,-358,1025v-369,1,-589,-170,-662,-515v87,9,184,5,290,-13v6,60,26,120,59,181v65,121,164,184,297,187v75,1,124,-86,146,-261v46,-368,-34,-932,-122,-1238v-60,-206,-119,-336,-183,-389r465,0","w":1161},"K":{"d":"363,-1516v146,-182,388,-365,669,-330v9,-28,26,-95,49,-202v-103,1,-214,24,-333,68v-239,88,-397,238,-474,451v14,-143,26,-316,35,-519r-242,0v25,287,41,588,50,902v17,629,-16,1011,-98,1146v60,-1,143,-1,248,0r-1,-1376v375,94,621,272,739,535v109,242,98,522,-33,841r283,-5v51,-468,-24,-830,-224,-1086v-142,-182,-364,-324,-668,-425","w":1382},"L":{"d":"105,-2048v67,148,125,344,173,589v95,489,93,975,-6,1459r238,0r0,-2048r-405,0","w":726},"M":{"d":"681,-2048v-135,0,-301,192,-347,322r10,-322r-344,0v111,543,177,1426,118,2048r226,0r0,-1024v-5,-135,5,-271,32,-406v54,-272,162,-410,325,-415v91,-3,159,86,208,266v83,304,78,882,20,1234v-33,198,-70,313,-117,345r371,0v-39,-307,-57,-615,-52,-922v9,-615,125,-923,346,-923v221,0,300,308,237,923v-32,307,-86,615,-162,922r320,0v37,-341,48,-683,35,-1024v-27,-683,-166,-1024,-417,-1024v-231,0,-395,166,-420,379v1,-63,-14,-126,-46,-189v-63,-127,-178,-190,-343,-190","w":2002},"N":{"d":"0,-2048v48,91,86,244,114,461v57,432,38,961,-59,1587r255,0v-7,-760,20,-1215,81,-1366v67,-166,124,-282,170,-347v85,-119,188,-180,308,-185v69,-3,130,41,181,133v52,94,87,224,104,389v42,391,-17,850,-177,1376r274,0v67,-341,102,-683,104,-1024v1,-299,-30,-533,-95,-704v-81,-213,-211,-320,-391,-320v-160,0,-292,62,-395,187v-52,63,-88,125,-107,187r8,-374r-375,0","w":1481},"O":{"d":"902,-457v-53,194,-123,291,-214,291v-111,-1,-202,-98,-283,-287v-141,-329,-145,-876,-11,-1201v68,-167,153,-250,256,-249v122,1,209,74,269,216v117,275,56,965,-17,1230xm134,-1739v-84,165,-126,383,-125,654v1,264,56,502,166,714v129,248,300,371,513,371v201,0,348,-144,439,-431v62,-194,93,-421,93,-681v0,-263,-12,-436,-36,-520v-78,-276,-263,-415,-556,-416v-223,-1,-388,102,-494,309","w":1314},"P":{"d":"1076,-1385v-113,229,-399,426,-710,436v-2,-314,-1,-557,3,-728v50,-107,127,-181,235,-213v329,-99,645,153,472,505xm308,-1900r0,-152r-291,9v45,99,81,259,108,479v54,439,38,959,-49,1560r232,0r58,-754v135,3,275,-22,418,-77v285,-110,441,-312,483,-604v47,-331,-158,-622,-463,-613v-175,5,-340,55,-496,152","w":1347},"Q":{"d":"948,-418v-40,107,-165,247,-285,247v-103,0,-187,-67,-250,-200v-72,-151,-109,-373,-111,-668v-2,-209,42,-402,132,-581v97,-191,211,-286,342,-286v111,0,198,108,262,325v51,171,76,351,76,542v0,221,-16,387,-48,498r-231,-310r-102,110xm1305,-1675v-93,-253,-277,-379,-550,-378v-245,1,-435,137,-572,407v-103,203,-152,406,-148,608v5,249,36,454,93,617v97,277,261,408,492,416v189,6,392,-160,466,-306v37,82,86,184,147,306v25,-86,75,-155,148,-208r-207,-194v35,-18,69,-59,104,-123v69,-127,104,-304,103,-532v-1,-273,-26,-478,-76,-613","w":1491},"R":{"d":"866,-2048v-233,0,-458,127,-551,280v-2,-187,-5,-280,-8,-280r-307,0v39,74,72,215,97,423v50,415,39,957,-32,1625r304,0v-9,-860,-3,-1338,20,-1433v42,-173,87,-289,136,-350v73,-92,188,-128,347,-122v207,8,358,172,387,368r188,-216v-99,-154,-347,-295,-581,-295","w":1524},"S":{"d":"1432,-1807v-68,-150,-263,-241,-489,-241v-247,0,-432,57,-556,170v-183,167,-159,342,38,500v104,83,626,348,735,445v216,192,224,448,5,633v-179,152,-527,220,-752,77v-184,-118,-245,-402,-158,-659r-250,118v-9,133,16,265,74,395v117,261,342,383,676,368v309,-14,528,-94,668,-230v218,-211,167,-644,-22,-846v-128,-137,-320,-223,-565,-303v-78,-25,-135,-49,-173,-67v-113,-53,-172,-119,-175,-199v-5,-113,54,-190,177,-231v77,-25,159,-35,246,-28v183,14,298,79,345,196v23,59,28,116,15,172","w":1668},"T":{"d":"199,-331v75,239,108,327,382,327v137,0,266,-76,389,-227v133,-163,200,-355,203,-574v-97,18,-165,32,-204,43v-7,111,-26,221,-57,330v-63,219,-158,326,-285,321v-101,-3,-190,-172,-266,-505v-71,-309,-103,-621,-98,-934v165,14,346,53,544,116r54,-216r-595,0v12,-213,47,-347,106,-402r-291,0v10,77,23,211,40,402r-126,0v7,36,25,72,54,108v20,-5,43,-9,70,-11v37,758,62,1166,80,1222","w":1271},"U":{"d":"0,-2035v62,105,98,361,107,768v13,523,20,794,23,814v23,257,251,470,524,452v99,-7,202,-69,308,-185v95,-104,183,-240,266,-409v-37,341,-60,538,-68,592r235,0r-11,-2045r-262,13v81,258,105,644,74,1017v-11,143,-71,303,-178,480v-126,207,-260,314,-401,319v-231,9,-346,-275,-368,-852v-7,-187,32,-822,40,-964r-289,0","w":1501},"V":{"d":"0,-2048v91,130,188,313,292,548v208,471,346,971,414,1500r211,0r754,-2048r-244,0r-575,1809r-467,-1809r-385,0","w":1758},"W":{"d":"0,-2048v231,280,400,963,505,2048r173,0r511,-1539v293,921,433,1434,418,1539r184,0v55,-341,121,-683,198,-1024v155,-683,290,-1024,405,-1024r-424,0r-239,1668v-89,-209,-171,-425,-244,-648v-148,-445,-182,-700,-103,-763r-326,0v-195,891,-344,1412,-445,1563r-298,-1820r-315,0","w":2427},"X":{"d":"-12,-2043v363,429,589,711,679,848v11,16,-54,166,-195,449v-159,320,-310,568,-452,745v4,7,59,7,166,0v106,-7,161,-7,165,0v4,8,80,-178,227,-557v147,-379,223,-565,227,-558v179,325,277,696,293,1115r211,0v-29,-170,-68,-347,-117,-531v-97,-368,-196,-586,-295,-654v119,-202,269,-488,450,-857r-320,0v-123,438,-200,684,-232,738v-76,-137,-244,-383,-504,-738r-303,0","w":1429},"Y":{"d":"572,-345v256,12,435,-177,459,-415v14,101,8,201,-17,301v-50,199,-172,297,-367,294v-144,-3,-251,-37,-320,-102v-35,-32,-55,-64,-61,-96r-228,238v177,83,373,125,586,125v274,0,401,-71,494,-259v109,-217,129,-814,60,-1789r-277,0v50,108,89,239,117,393v57,308,32,577,-74,808v-108,236,-221,346,-339,331v-206,-27,-328,-291,-366,-791v-19,-249,-17,-496,5,-741r-244,0v85,280,114,561,106,935v-7,281,-2,478,91,609v67,94,194,150,375,159","w":1324},"Z":{"d":"6,-144r0,147r1297,21v-1,-89,-1,-189,0,-298v-141,79,-507,113,-1096,102r431,-680v101,-26,205,23,247,84v29,-61,58,-138,87,-229v-71,11,-157,14,-257,8r645,-1035r-1252,0r0,322v224,-133,601,-204,981,-196v-18,40,-103,160,-255,360v-163,213,-281,388,-354,524v-102,-15,-191,-33,-268,-53r0,109v47,-9,121,0,223,27","w":1424},"[":{"w":758},"\\":{"w":569},"]":{"w":758},"^":{},"`":{"d":"882,-1652v-56,37,-164,145,-143,210v-73,-61,-147,-156,-221,-285v-82,-142,-115,-247,-98,-315r94,104v110,128,212,211,368,286","w":1199},"a":{"d":"1211,-704v0,299,-272,568,-570,559v-298,-9,-474,-243,-474,-559v0,-316,239,-558,554,-558v210,0,350,57,421,171v46,75,69,204,69,387xm776,-1507v-504,0,-770,293,-767,803v3,431,246,738,672,738v209,0,367,-74,474,-225v53,-75,86,-151,97,-226r-16,413r256,-9v-29,-431,-55,-684,-12,-1167v14,-162,12,-273,1,-334v-27,-147,-84,-257,-170,-331v-118,-101,-309,-161,-573,-180v-242,-17,-431,39,-568,168v-69,65,-113,131,-133,199r193,262v-15,-87,-4,-176,31,-265v71,-179,232,-274,483,-287v251,-13,411,102,480,343v35,121,44,243,28,366v-10,-45,-38,-89,-83,-134v-89,-89,-220,-134,-393,-134","w":1606},"b":{"d":"283,-835v6,-96,36,-191,79,-287v86,-192,213,-289,383,-289v100,0,180,70,240,210v49,116,76,251,79,406v4,189,-10,327,-42,412v-51,137,-156,211,-315,224v-307,23,-452,-202,-424,-676xm174,-281v53,173,241,272,479,272v465,0,677,-309,645,-928v-18,-347,-200,-589,-539,-598v-165,-4,-377,105,-473,201r24,-723r-307,4v99,527,133,930,101,1209r-96,835r166,0r0,-272","w":1400},"c":{"d":"1176,-1758v-33,-59,-80,-115,-142,-168v-125,-106,-262,-146,-411,-119v-241,43,-406,163,-495,360v-67,148,-97,367,-90,658v7,278,53,505,136,681v111,233,280,341,508,341v283,0,500,-180,552,-420r-240,-210v15,71,13,143,-6,214v-38,143,-140,214,-306,214v-145,0,-246,-95,-303,-286v-29,-99,-53,-278,-72,-537v-15,-211,9,-408,71,-593v75,-225,186,-320,334,-299v198,28,308,220,284,456","w":1324},"d":{"d":"784,-378v-63,157,-148,233,-254,228v-75,-3,-131,-69,-170,-197v-70,-230,-45,-637,33,-845v48,-129,103,-196,171,-201v104,-7,182,64,240,212v95,243,71,576,-20,803xm1003,-1348v-71,-108,-238,-182,-420,-178v-391,8,-514,220,-539,619v-16,255,19,466,100,634v87,182,213,273,378,272v143,0,259,-77,348,-231v45,-77,75,-153,91,-230r-36,461v130,8,222,8,276,0v-109,-671,-106,-1212,11,-1625v59,-206,128,-345,208,-418r-422,0","w":1500},"e":{"d":"1004,-1548v0,223,-98,348,-294,375v-170,24,-323,25,-460,4v10,-128,38,-256,83,-384v91,-257,225,-385,403,-386v179,-1,269,129,268,391xm1249,-1570v-1,-290,-214,-478,-516,-478v-191,0,-356,92,-495,275v-147,194,-225,443,-234,747v-9,315,45,566,162,755v115,186,269,276,460,271v158,-5,309,-102,454,-291v72,-94,128,-188,169,-282r-272,-131v-1,89,-16,181,-45,275v-59,187,-161,291,-306,310v-152,21,-256,-74,-312,-285v-29,-110,-50,-316,-64,-617v297,1,506,-18,625,-55v249,-77,374,-241,374,-494","w":1352},"f":{"d":"5,-1250r201,0v47,-539,214,-808,503,-808v199,0,382,159,438,323r-272,195v-2,-94,-19,-178,-52,-253v-65,-150,-174,-178,-327,-84v-94,57,-145,266,-152,627r331,0r52,272r-405,-146v42,342,131,712,268,1111v-125,4,-244,4,-358,0r-28,-479v-13,-253,-15,-468,-6,-646v-90,-13,-154,-18,-193,-17v2,-20,2,-52,0,-95","w":1218},"g":{"d":"904,-865v-145,143,-327,56,-426,-63v-83,-100,-118,-246,-109,-435v11,-218,49,-373,114,-465v69,-97,180,-141,333,-134v155,8,246,128,280,359v47,317,-43,590,-192,738xm871,-2050v-455,-37,-723,314,-723,774v0,337,275,602,599,614v117,4,212,-43,285,-147v36,-52,60,-105,73,-158v-3,139,-22,279,-58,418v-72,280,-193,421,-362,424v-169,3,-299,-102,-389,-314v-45,-107,-74,-213,-85,-320r-200,173v43,97,103,194,182,291v159,194,330,291,513,291v203,0,346,-100,427,-300v65,-158,99,-408,103,-750v4,-392,-3,-629,-22,-712v-42,-181,-140,-268,-343,-284","w":1328},"h":{"d":"781,-1534v-200,0,-401,142,-475,290r34,-809r-324,0v85,487,209,1671,117,2046r166,0v-37,-487,-22,-892,131,-1174v85,-156,210,-234,369,-237v85,-1,165,46,239,142v69,91,124,211,164,360v91,341,80,644,-35,911v51,0,131,-1,242,-2v50,-459,-15,-1024,-197,-1289v-108,-158,-250,-238,-431,-238","w":1500},"i":{"d":"243,-1139v58,390,55,770,-8,1139r253,0v-31,-258,-53,-519,-66,-782v-25,-527,10,-804,103,-831v-104,19,-233,19,-387,0v41,121,76,279,105,474xm187,-2008v80,-80,304,-53,295,84v-8,119,-191,189,-287,108v-55,-47,-62,-139,-8,-192","w":698},"j":{"d":"972,-2057v47,341,69,682,68,1023v-2,683,-121,1024,-358,1025v-369,1,-589,-170,-662,-515v87,9,184,5,290,-13v6,60,26,120,59,181v65,121,164,184,297,187v75,1,124,-86,146,-261v46,-368,-34,-932,-122,-1238v-60,-206,-119,-336,-183,-389r465,0","w":1152},"k":{"d":"349,-1511v146,-182,388,-365,669,-330v9,-28,26,-95,49,-202v-103,1,-214,24,-333,68v-239,88,-397,238,-474,451v14,-143,26,-316,35,-519r-242,0v25,287,41,588,50,902v17,629,-16,1011,-98,1146v60,-1,143,-1,248,0r-1,-1376v375,94,621,272,739,535v109,242,98,522,-33,841r283,-5v51,-468,-24,-830,-224,-1086v-142,-182,-364,-324,-668,-425","w":1352},"l":{"d":"134,-2053v67,148,125,344,173,589v95,489,93,975,-6,1459r238,0r0,-2048r-405,0","w":693},"m":{"d":"681,-2048v-135,0,-301,192,-347,322r10,-322r-344,0v111,543,177,1426,118,2048r226,0r0,-1024v-5,-135,5,-271,32,-406v54,-272,162,-410,325,-415v91,-3,159,86,208,266v83,304,78,882,20,1234v-33,198,-70,313,-117,345r371,0v-39,-307,-57,-615,-52,-922v9,-615,125,-923,346,-923v221,0,300,308,237,923v-32,307,-86,615,-162,922r320,0v37,-341,48,-683,35,-1024v-27,-683,-166,-1024,-417,-1024v-231,0,-395,166,-420,379v1,-63,-14,-126,-46,-189v-63,-127,-178,-190,-343,-190","w":2026},"n":{"d":"0,-2048v48,91,86,244,114,461v57,432,38,961,-59,1587r255,0v-7,-760,20,-1215,81,-1366v67,-166,124,-282,170,-347v85,-119,188,-180,308,-185v69,-3,130,41,181,133v52,94,87,224,104,389v42,391,-17,850,-177,1376r274,0v67,-341,102,-683,104,-1024v1,-299,-30,-533,-95,-704v-81,-213,-211,-320,-391,-320v-160,0,-292,62,-395,187v-52,63,-88,125,-107,187r8,-374r-375,0","w":1472},"o":{"d":"906,-457v-53,194,-123,291,-214,291v-111,-1,-202,-98,-283,-287v-141,-329,-145,-876,-11,-1201v68,-167,153,-250,256,-249v122,1,209,74,269,216v117,275,56,965,-17,1230xm138,-1739v-84,165,-126,383,-125,654v1,264,56,502,166,714v129,248,300,371,513,371v201,0,348,-144,439,-431v62,-194,93,-421,93,-681v0,-263,-12,-436,-36,-520v-78,-276,-263,-415,-556,-416v-223,-1,-388,102,-494,309","w":1328},"p":{"d":"1056,-1381v-113,229,-399,426,-710,436v-2,-314,-1,-557,3,-728v50,-107,127,-181,235,-213v329,-99,645,153,472,505xm288,-1896r0,-152r-291,9v45,99,81,259,108,479v54,439,38,959,-49,1560r232,0r58,-754v135,3,275,-22,418,-77v285,-110,441,-312,483,-604v47,-331,-158,-622,-463,-613v-175,5,-340,55,-496,152","w":1324},"q":{"d":"919,-413v-40,107,-165,247,-285,247v-103,0,-187,-67,-250,-200v-72,-151,-109,-373,-111,-668v-2,-209,42,-402,132,-581v97,-191,211,-286,342,-286v111,0,198,108,262,325v51,171,76,351,76,542v0,221,-16,387,-48,498r-231,-310r-102,110xm1276,-1670v-93,-253,-277,-379,-550,-378v-245,1,-435,137,-572,407v-103,203,-152,406,-148,608v5,249,36,454,93,617v97,277,261,408,492,416v189,6,392,-160,466,-306v37,82,86,184,147,306v25,-86,75,-155,148,-208r-207,-194v35,-18,69,-59,104,-123v69,-127,104,-304,103,-532v-1,-273,-26,-478,-76,-613","w":1453},"r":{"d":"866,-2048v-233,0,-458,127,-551,280v-2,-187,-5,-280,-8,-280r-307,0v39,74,72,215,97,423v50,415,39,957,-32,1625r304,0v-9,-860,-3,-1338,20,-1433v42,-173,87,-289,136,-350v73,-92,188,-128,347,-122v207,8,358,172,387,368r188,-216v-99,-154,-347,-295,-581,-295","w":1515},"s":{"d":"1432,-1821v-68,-150,-263,-241,-489,-241v-247,0,-432,57,-556,170v-183,167,-159,342,38,500v104,83,626,348,735,445v216,192,224,448,5,633v-179,152,-527,220,-752,77v-184,-118,-245,-402,-158,-659r-250,118v-9,133,16,265,74,395v117,261,342,383,676,368v309,-14,528,-94,668,-230v218,-211,167,-644,-22,-846v-128,-137,-320,-223,-565,-303v-78,-25,-135,-49,-173,-67v-113,-53,-172,-119,-175,-199v-5,-113,54,-190,177,-231v77,-25,159,-35,246,-28v183,14,298,79,345,196v23,59,28,116,15,172","w":1649},"t":{"d":"190,-331v75,239,108,327,382,327v137,0,266,-76,389,-227v133,-163,200,-355,203,-574v-97,18,-165,32,-204,43v-7,111,-26,221,-57,330v-63,219,-158,326,-285,321v-101,-3,-190,-172,-266,-505v-71,-309,-103,-621,-98,-934v165,14,346,53,544,116r54,-216r-595,0v12,-213,47,-347,106,-402r-291,0v10,77,23,211,40,402r-126,0v7,36,25,72,54,108v20,-5,43,-9,70,-11v37,758,62,1166,80,1222","w":1271},"u":{"d":"0,-2035v62,105,98,361,107,768v13,523,20,794,23,814v23,257,251,470,524,452v99,-7,202,-69,308,-185v95,-104,183,-240,266,-409v-37,341,-60,538,-68,592r235,0r-11,-2045r-262,13v81,258,105,644,74,1017v-11,143,-71,303,-178,480v-126,207,-260,314,-401,319v-231,9,-346,-275,-368,-852v-7,-187,32,-822,40,-964r-289,0","w":1510},"v":{"d":"0,-2048v91,130,188,313,292,548v208,471,346,971,414,1500r211,0r754,-2048r-244,0r-575,1809r-467,-1809r-385,0","w":1754},"w":{"d":"0,-2048v231,280,400,963,505,2048r173,0r511,-1539v293,921,433,1434,418,1539r184,0v55,-341,121,-683,198,-1024v155,-683,290,-1024,405,-1024r-424,0r-239,1668v-89,-209,-171,-425,-244,-648v-148,-445,-182,-700,-103,-763r-326,0v-195,891,-344,1412,-445,1563r-298,-1820r-315,0","w":2442},"x":{"d":"-12,-2043v363,429,589,711,679,848v11,16,-54,166,-195,449v-159,320,-310,568,-452,745v4,7,59,7,166,0v106,-7,161,-7,165,0v4,8,80,-178,227,-557v147,-379,223,-565,227,-558v179,325,277,696,293,1115r211,0v-29,-170,-68,-347,-117,-531v-97,-368,-196,-586,-295,-654v119,-202,269,-488,450,-857r-320,0v-123,438,-200,684,-232,738v-76,-137,-244,-383,-504,-738r-303,0","w":1395},"y":{"d":"572,-345v256,12,435,-177,459,-415v14,101,8,201,-17,301v-50,199,-172,297,-367,294v-144,-3,-251,-37,-320,-102v-35,-32,-55,-64,-61,-96r-228,238v177,83,373,125,586,125v274,0,401,-71,494,-259v109,-217,129,-814,60,-1789r-277,0v50,108,89,239,117,393v57,308,32,577,-74,808v-108,236,-221,346,-339,331v-206,-27,-328,-291,-366,-791v-19,-249,-17,-496,5,-741r-244,0v85,280,114,561,106,935v-7,281,-2,478,91,609v67,94,194,150,375,159","w":1319},"z":{"d":"10,-163r0,147r1297,21v-1,-89,-1,-189,0,-298v-141,79,-507,113,-1096,102r431,-680v101,-26,205,23,247,84v29,-61,58,-138,87,-229v-71,11,-157,14,-257,8r645,-1035r-1252,0r0,322v224,-133,601,-204,981,-196v-18,40,-103,160,-255,360v-163,213,-281,388,-354,524v-102,-15,-191,-33,-268,-53r0,109v47,-9,121,0,223,27","w":1438},"{":{"d":"885,-1930v-41,-66,-141,-121,-246,-118v-129,4,-164,50,-195,161v-16,58,-45,293,-80,703v-10,112,-96,175,-218,162r0,150v51,-25,99,-36,146,-31v95,9,134,89,118,238v-33,305,-47,489,-41,553v15,155,92,232,230,229v87,-2,183,-36,286,-101r-80,-149v-17,45,-40,82,-71,110v-61,56,-127,40,-195,-48v-68,-88,-98,-185,-92,-288v3,-52,24,-136,63,-252v78,-230,25,-294,-164,-380v142,-103,176,-243,171,-510v-2,-131,1,-219,10,-264v16,-83,56,-138,118,-165v64,-27,98,4,101,93v1,33,0,72,-12,92v-2,1,-3,-4,-2,-15"},"}":{"d":"283,-1737v-12,-19,-13,-60,-12,-92v3,-90,38,-121,105,-94v66,27,105,82,124,166v20,91,4,460,34,552v32,98,78,175,158,226v-198,86,-257,149,-173,383v41,117,63,201,66,253v7,104,-25,201,-97,290v-72,89,-140,105,-205,48v-32,-28,-57,-65,-75,-111r-84,150v109,66,210,100,301,102v145,3,226,-74,242,-231v6,-64,-8,-249,-43,-556v-17,-150,25,-230,124,-239v49,-5,101,6,154,31r0,-151v-125,15,-220,-50,-230,-163v-36,-412,-67,-648,-84,-707v-33,-114,-70,-159,-205,-162v-110,-3,-213,51,-259,119r161,171v1,11,0,16,-2,15"},"~":{"d":"96,-1701v83,-136,236,-313,445,-226v63,26,207,218,241,246v49,41,100,63,156,63v107,1,179,-25,225,-71v51,-51,25,-138,32,-226v-27,64,-171,184,-264,157v-155,-45,-325,-155,-465,-223v-140,-68,-336,-29,-370,95r0,185","w":1295},"\u00a1":{"d":"449,-1824v-80,81,-304,52,-295,-84v8,-121,191,-189,287,-108v55,47,60,139,8,192xm420,-481v-58,-390,-54,-770,9,-1139r-253,0v31,258,53,519,65,782v25,527,-9,804,-102,831v104,-19,233,-19,387,0v-41,-121,-77,-279,-106,-474","w":672},"\u00a2":{"w":1139},"\u00aa":{"w":648},"\u00af":{"w":670},"\u00b1":{},"\u00b2":{},"\u00b3":{},"\u00b4":{"d":"567,-2057v64,26,210,52,250,0v-9,163,-188,560,-310,591v5,-21,14,-66,32,-133v39,-145,56,-286,28,-458","w":1218},"\u00b5":{"w":1180},"\u00b7":{"d":"129,-770v81,-80,304,-52,295,84v-8,120,-191,189,-287,108v-54,-46,-61,-139,-8,-192","w":508},"\u2219":{"d":"129,-770v81,-80,304,-52,295,84v-8,120,-191,189,-287,108v-54,-46,-61,-139,-8,-192","w":508},"\u00b9":{},"\u00ba":{"w":718},"\u00bc":{"w":1708},"\u00bd":{"w":1964},"\u00be":{"w":1708},"\u00bf":{"d":"554,-1822v-80,81,-304,52,-295,-84v8,-121,191,-190,287,-109v56,47,60,140,8,193xm735,-705v29,107,33,211,11,313v-44,204,-193,293,-447,267v-125,-13,-197,-89,-216,-228v-17,-119,6,-272,67,-459v55,-167,127,-325,218,-472v90,-147,169,-237,236,-268v-56,-5,-144,-4,-263,3v-123,230,-218,466,-283,709v-57,213,-68,385,-47,520v49,314,422,407,696,217v99,-69,195,-171,201,-309","w":989},"\u00c0":{"w":1540},"\u00c1":{"w":1540},"\u00c2":{"w":1540},"\u00c3":{"w":1540},"\u00c4":{"w":1540},"\u00c5":{"w":1540},"\u00c6":{"w":2118},"\u00c7":{"w":1399},"\u00c8":{"w":1151},"\u00c9":{"w":1151},"\u00ca":{"w":1151},"\u00cb":{"w":1151},"\u00cc":{"w":657},"\u00cd":{"w":657},"\u00ce":{"w":657},"\u00cf":{"w":657},"\u00d0":{"w":1518},"\u00d1":{"w":1554},"\u00d2":{"w":1614},"\u00d3":{"w":1614},"\u00d4":{"w":1614},"\u00d5":{"w":1614},"\u00d6":{"w":1614},"\u00d7":{"d":"507,-618r-247,247r-99,-99r247,-247r-247,-248r99,-98r247,247r248,-247r98,99r-247,247r247,247r-99,99"},"\u00d8":{"w":1614},"\u00d9":{"w":1501},"\u00da":{"w":1501},"\u00db":{"w":1501},"\u00dc":{"w":1501},"\u00dd":{"w":1233},"\u00de":{"w":1120},"\u00df":{"w":1251},"\u00e0":{"w":922},"\u00e1":{"w":922},"\u00e2":{"w":922},"\u00e3":{"w":922},"\u00e4":{"w":922},"\u00e5":{"w":922},"\u00e6":{"w":1454},"\u00e7":{"w":905},"\u00e8":{"w":909},"\u00e9":{"w":909},"\u00ea":{"w":909},"\u00eb":{"w":909},"\u00ec":{"w":514},"\u00ed":{"w":514},"\u00ee":{"w":514},"\u00ef":{"w":514},"\u00f0":{"w":1139},"\u00f1":{"w":1108},"\u00f2":{"w":1010},"\u00f3":{"w":1010},"\u00f4":{"w":1010},"\u00f5":{"w":1010},"\u00f6":{"w":1010},"\u00f7":{"d":"87,-647r0,-140r840,1r0,139r-840,0xm398,-408r82,-84v22,-20,39,-20,60,2r80,86v17,22,17,40,-2,60v-33,34,-68,87,-109,108v-11,0,-20,-5,-29,-14r-88,-101v-15,-21,-13,-38,6,-57xm398,-1101r82,-84v22,-20,39,-20,60,2r80,86v17,22,17,40,-2,60v-33,34,-68,87,-109,108v-11,0,-20,-5,-29,-14r-88,-101v-15,-21,-13,-38,6,-57"},"\u00f8":{"w":1010},"\u00f9":{"w":1059},"\u00fa":{"w":1059},"\u00fb":{"w":1059},"\u00fc":{"w":1059},"\u00fd":{"w":868},"\u00fe":{"w":1010},"\u00ff":{"w":868},"\u0131":{"d":"328,-223v4,138,34,184,146,173r0,50r-442,0r0,-50v112,10,146,-35,146,-173r0,-432v6,-67,-75,-83,-159,-77r0,-44v148,-46,235,-107,261,-182r48,0r0,735","w":514},"\u02c6":{"d":"221,-1079r232,-355r118,0r232,355r-58,0r-233,-216r-233,216r-58,0","w":1024},"\u02c7":{"d":"221,-1434r58,0r233,214r233,-214r58,0r-232,356r-118,0","w":1024},"\u02c9":{"d":"254,-1195r0,-125r516,0r0,125r-516,0","w":1024},"\u02d8":{"d":"803,-1349v-24,165,-114,270,-291,270v-176,0,-268,-108,-293,-270r51,0v26,105,105,141,242,141v138,-1,214,-35,240,-141r51,0","w":1024},"\u02d9":{"d":"416,-1240v-13,-13,-9,-40,6,-49v28,-26,49,-61,82,-81v14,-9,31,0,39,9r71,76v14,11,10,41,-2,51v-32,28,-56,70,-94,92v-13,0,-21,-4,-27,-11","w":1024},"\u02da":{"d":"511,-1356v-53,0,-100,47,-100,99v0,55,45,100,100,100v55,0,100,-45,100,-100v0,-52,-47,-99,-100,-99xm511,-1079v-97,0,-176,-81,-176,-178v0,-97,79,-177,176,-177v98,0,179,80,179,177v0,98,-81,178,-179,178","w":1024},"\u02db":{"d":"369,292v0,-132,116,-236,222,-292r49,0v-72,67,-144,127,-150,232v-4,61,39,104,100,103v59,-1,95,-24,119,-64r28,16v-41,73,-109,129,-210,131v-85,2,-158,-48,-158,-126","w":1024},"\u02dc":{"d":"656,-1296v62,-2,81,-33,98,-86r54,0v-24,120,-72,201,-199,205v-64,2,-166,-50,-227,-47v-63,3,-79,33,-94,92r-54,0v22,-122,71,-207,197,-211v58,-3,164,49,225,47","w":1024},"\u02dd":{"d":"406,-1415v53,-53,147,16,104,83v-7,13,-17,26,-30,41r-205,212r-58,0r144,-273v16,-29,31,-50,45,-63xm692,-1415v53,-53,147,16,104,83v-7,13,-18,26,-31,41r-205,212r-58,0r144,-273v16,-29,32,-50,46,-63","w":1024},"\u2013":{"d":"56,-419r0,-120r996,0r0,120r-996,0","w":1108},"\u2014":{"d":"0,-419r0,-120r2048,0r0,120r-2048,0","w":2048},"\u2018":{"d":"319,-1016v-70,-4,-133,-126,-133,-217v0,-116,111,-345,210,-344r0,43v-49,29,-87,92,-87,190v0,79,43,133,129,161r0,42","w":557},"\u2019":{"d":"238,-1577v70,4,133,126,133,217v0,116,-111,345,-210,344r0,-43v49,-29,87,-92,87,-190v0,-79,-43,-133,-129,-161r0,-42","w":557},"\u201a":{"d":"238,-281v70,4,133,126,133,217v0,116,-111,345,-210,344r0,-43v49,-29,87,-92,87,-190v0,-79,-43,-133,-129,-161r0,-42","w":557},"\u201c":{"d":"319,-1016v-70,-4,-133,-126,-133,-217v0,-116,111,-345,210,-344r0,43v-49,29,-87,92,-87,190v0,79,43,133,129,161r0,42xm672,-1016v-70,-4,-133,-126,-133,-217v0,-116,111,-345,210,-344r0,43v-49,29,-87,92,-87,190v0,79,43,133,129,161r0,42","w":910},"\u201d":{"d":"238,-1577v70,4,133,126,133,217v0,116,-111,345,-210,344r0,-43v49,-29,87,-92,87,-190v0,-79,-43,-133,-129,-161r0,-42xm591,-1577v70,4,133,126,133,217v0,116,-111,345,-210,344r0,-43v49,-29,87,-92,87,-190v0,-79,-43,-133,-129,-161r0,-42","w":910},"\u201e":{"d":"238,-281v70,4,133,126,133,217v0,116,-111,345,-210,344r0,-43v49,-29,87,-92,87,-190v0,-79,-43,-133,-129,-161r0,-42xm591,-281v70,4,133,126,133,217v0,116,-111,345,-210,344r0,-43v49,-29,87,-92,87,-190v0,-79,-43,-133,-129,-161r0,-42","w":910},"\u2020":{"d":"71,-1001v0,-68,36,-132,99,-132v21,0,67,19,137,56v57,31,116,49,179,55v-5,-65,-23,-124,-54,-178v-38,-67,-57,-110,-57,-129v0,-69,58,-108,132,-108v68,0,132,36,132,99v0,21,-18,67,-55,137v-30,57,-49,116,-55,179v64,-5,123,-23,177,-54v67,-38,110,-57,129,-57v69,0,109,58,109,132v0,69,-36,132,-100,132v-21,0,-67,-18,-136,-55v-57,-31,-116,-50,-179,-57v5,117,42,210,110,277v-71,307,-108,631,-112,974r-38,0v-4,-343,-42,-667,-114,-974v68,-67,105,-160,111,-277v-64,7,-124,25,-178,55v-68,38,-110,57,-129,57v-69,0,-108,-58,-108,-132"},"\u2021":{"d":"943,-1001v0,69,-36,132,-100,132v-21,0,-67,-18,-136,-55v-57,-31,-116,-50,-179,-57v5,151,42,283,110,397v-68,115,-105,247,-110,398v63,-7,122,-26,179,-57v69,-37,115,-55,136,-55v64,0,100,63,100,132v0,74,-40,132,-109,132v-19,0,-62,-19,-129,-57v-54,-31,-113,-49,-177,-54v6,63,25,122,55,179v37,70,55,116,55,137v0,63,-64,99,-132,99v-74,0,-132,-39,-132,-108v0,-19,19,-62,57,-129v31,-54,49,-113,54,-178v-63,6,-122,24,-179,55v-70,37,-116,56,-137,56v-63,0,-99,-64,-99,-132v0,-74,39,-132,108,-132v19,0,61,19,129,57v54,30,114,48,178,55v-6,-151,-43,-283,-111,-398v68,-114,105,-246,111,-397v-64,7,-124,25,-178,55v-68,38,-110,57,-129,57v-69,0,-108,-58,-108,-132v0,-68,36,-132,99,-132v21,0,67,19,137,56v57,31,116,49,179,55v-5,-65,-23,-124,-54,-178v-38,-67,-57,-110,-57,-129v0,-69,58,-108,132,-108v68,0,132,36,132,99v0,21,-18,67,-55,137v-30,57,-49,116,-55,179v64,-5,123,-23,177,-54v67,-38,110,-57,129,-57v69,0,109,58,109,132"},"\u2022":{"d":"511,-421v-160,0,-295,-138,-295,-297v0,-160,138,-295,297,-295v158,0,295,137,295,295v0,158,-139,297,-297,297","w":1024},"\u2026":{"d":"145,-167r82,-84v22,-20,39,-20,60,2r80,86v17,22,17,40,-2,60v-33,34,-68,87,-109,108v-11,0,-20,-5,-29,-14r-88,-101v-15,-21,-13,-38,6,-57xm828,-167r82,-84v22,-20,39,-20,60,2r80,86v17,22,17,40,-2,60v-33,34,-68,87,-109,108v-11,0,-20,-5,-29,-14r-88,-101v-15,-21,-13,-38,6,-57xm1511,-167r82,-84v22,-20,39,-20,60,2r80,86v17,22,17,40,-2,60v-33,34,-68,87,-109,108v-11,0,-20,-5,-29,-14r-88,-101v-15,-21,-13,-38,6,-57","w":2048},"\u2039":{"d":"174,-479r342,-303r14,0r0,37r-205,266r205,266r0,37r-14,0","w":631},"\u203a":{"d":"115,-176r-14,0r0,-37r205,-266r-205,-266r0,-37r14,0r342,303","w":631},"\u2044":{"d":"-342,29r940,-1461r84,0r-938,1461r-86,0","w":342},"\u2215":{"d":"-342,29r940,-1461r84,0r-938,1461r-86,0","w":342},"\u20a3":{"d":"247,-357r-194,0r0,-60r194,0r0,-732v0,-157,-34,-235,-103,-235r-96,0r0,-50r915,0r103,231r-49,0v-39,-121,-103,-182,-190,-182r-316,1v-68,0,-102,78,-102,235r0,352r361,0v95,0,107,-38,100,-121r50,0r0,342r-50,0v6,-83,-3,-122,-100,-122r-361,0r0,281r194,0r0,60r-194,0r0,72v0,157,34,235,102,235r97,0r0,50r-560,0r0,-50r96,0v69,0,103,-78,103,-235r0,-72"},"\u20a4":{"d":"153,-986v0,-282,172,-466,434,-468v50,0,111,5,185,14v74,9,111,21,111,34r0,161r-58,0v-3,-41,-28,-77,-77,-102v-47,-24,-102,-33,-162,-31v-151,5,-273,175,-273,372v0,71,11,142,33,213r380,0r0,60r-360,0v8,20,17,40,26,60r352,0r0,60r-321,0v23,42,35,88,35,138v0,107,-54,232,-162,375r402,0v87,0,150,-44,189,-132r49,1r-103,231r-719,0r1,-50v125,-159,187,-298,187,-418v0,-51,-11,-103,-36,-145r-172,0r0,-60r143,0r-26,-60r-135,0r0,-60r113,0v-24,-71,-36,-136,-36,-193"},"\u20a7":{"d":"409,-722v45,112,113,231,250,213v299,-40,300,-690,77,-841v-83,-56,-201,-26,-327,-34r0,662xm1465,-568v-70,-96,-51,-267,31,-340r-179,0r0,685v0,95,33,146,115,156r-71,-192r49,-1v37,87,76,143,114,174v125,99,344,22,344,-144v0,-68,-87,-142,-259,-226v-68,-33,-115,-72,-144,-112xm1400,10v-171,0,-232,-77,-232,-233r0,-687r-129,0v-18,229,-151,425,-379,435v-93,4,-196,-55,-251,-115r0,305v0,157,34,235,102,235r97,0r0,50r-560,0r0,-50r96,0v69,0,103,-78,103,-235r0,-864v0,-157,-34,-235,-103,-235r-96,0r0,-50r618,0v232,16,370,227,375,476v157,4,223,-114,226,-355r50,0r0,355r259,0v28,-13,66,-20,112,-20v45,-1,213,14,213,47r0,159r-42,0v-1,-87,-108,-150,-199,-150v-82,0,-142,52,-141,133v0,72,78,145,235,220v135,64,213,111,213,271v0,93,-24,175,-83,231v-64,60,-144,84,-228,86v-60,2,-106,-16,-161,-17v-32,0,-62,8,-95,8","w":2028},"\u20ac":{"d":"689,0v-378,0,-583,-298,-625,-653r-108,0r17,-60r87,0r1,-60r-71,0r17,-60r58,0v24,-236,142,-450,302,-555v148,-97,326,-128,483,-53v13,0,25,-15,34,-45r41,0r84,281r-40,1v-45,-124,-108,-179,-219,-210r0,-3v-152,-42,-259,4,-361,99v-110,102,-181,286,-196,485r706,0r-17,60r-692,0v0,20,1,40,2,60r674,0r-17,60r-652,0v23,221,129,439,276,534v69,44,140,69,216,69v124,0,209,-33,256,-91v49,-61,74,-122,74,-185r48,0r0,143v0,47,-37,89,-111,127v-70,36,-159,56,-267,56"},"\u2116":{"w":2271},"\u2122":{"w":1497},"\u2202":{"d":"467,-942v-271,0,-275,490,-169,714v34,71,72,127,119,165v43,35,85,53,128,53v273,0,276,-488,169,-716v-52,-110,-123,-216,-247,-216xm77,-477v0,-270,170,-490,430,-501v94,-3,204,48,266,106v-56,-157,-133,-282,-233,-377v-100,-95,-209,-146,-327,-155r0,-55v204,0,376,95,515,285v139,190,209,422,209,697v0,273,-166,502,-430,502v-263,0,-430,-229,-430,-502"},"\u2206":{"d":"514,-1195r-406,1072r801,0xm547,-1434r526,1434r-1067,0","w":1081},"\u220f":{"d":"511,-1384v-68,0,-102,78,-102,235r0,1281v0,157,34,235,102,235r97,0r0,51r-560,0r0,-51r96,0v69,0,103,-78,103,-235r0,-1281v0,-157,-34,-235,-103,-235r-96,0r0,-50r1419,0r0,50r-97,0v-68,0,-102,78,-102,235r0,1281v0,157,34,235,102,235r97,0r0,50r-560,0r0,-50r96,0v69,0,103,-78,103,-235r0,-1281v0,-157,-34,-235,-103,-235r-492,0","w":1515},"\u2211":{"d":"1059,-548r-788,914r635,0v87,0,150,-61,189,-182r49,0r-103,232r-921,0r0,-50v41,0,77,-18,106,-53r663,-781r-663,-859v-29,-38,-65,-57,-106,-57r0,-50r921,0r103,232r-49,0v-39,-121,-102,-182,-189,-182r-485,0","w":1206},"\u2212":{"d":"87,-647r0,-140r840,1r0,139r-840,0"},"\u221a":{"d":"181,0r-164,-359r74,-35r85,185r728,-1470r150,0r0,60r-72,0"},"\u221e":{"d":"80,-689v0,107,78,188,193,163v110,-23,132,-72,166,-229v-11,-104,-68,-155,-158,-155v-118,0,-201,100,-201,221xm729,-950v-163,0,-226,94,-263,263v3,102,122,201,217,201v143,0,249,-118,249,-274v0,-112,-84,-190,-203,-190xm265,-1021v102,0,163,96,185,194v29,-129,107,-255,244,-255v170,0,257,182,257,365v0,183,-86,365,-257,365v-136,0,-216,-126,-244,-255v-23,99,-82,194,-185,194v-266,0,-266,-608,0,-608"},"\u222b":{"d":"689,-1528v4,-51,-55,-86,-98,-86v-47,0,-86,52,-116,156v-30,104,-36,225,-49,363r-73,767v-13,154,-57,294,-131,420v-74,126,-151,189,-234,189v-40,0,-60,-10,-60,-29r0,-159r36,0v-3,52,54,85,99,86v55,0,93,-54,115,-162v21,-108,30,-214,40,-316r78,-796v18,-159,63,-301,135,-429v72,-128,150,-192,234,-192v40,0,60,10,60,29r0,159r-36,0","w":665},"\u2248":{"d":"685,-913v113,-10,162,-55,238,-140r0,156v-67,77,-127,114,-238,123v-70,6,-285,-104,-354,-97v-112,11,-161,56,-237,140r0,-156v68,-77,128,-115,237,-125v72,-7,287,105,354,99xm685,-565v113,-10,162,-55,238,-140r0,156v-67,77,-127,114,-238,123v-70,6,-285,-104,-354,-97v-112,11,-161,56,-237,140r0,-156v68,-77,128,-115,237,-125v72,-7,287,105,354,99"},"\u2264":{"d":"927,-1074r-625,359r625,355r0,167r-840,-481r0,-83r840,-484r0,167xm87,-1r0,-140r840,1r0,139r-840,0"},"\u2265":{"d":"87,-1241r840,484r0,83r-840,481r0,-167r625,-355r-625,-359r0,-167xm87,-2r0,-140r840,1r0,139r-840,0"},"\uf001":{"w":1073},"\ufb01":{"w":1073},"\uf002":{"w":1081},"\ufb02":{"w":1081}}});
